[-0.0022837695935202795, -0.23412850506472493, 0.17623141519333674, -0.2324159515707179, 0.21750651468628518, 0.354946964040884, -0.0367783852357485, 0.29726420620922983, -0.18611929333944474, 0.12074518254110889, 0.36512677824369766, -0.20816944734360204, -0.35974306977420656, 0.029636340846855846, -0.27078416046995285, -0.2603787611832168, 0.19353055176243866, 0.03705515797103165, 0.2978236049449195, -0.04198638212244732, 0.30416639717289307, -0.20415878908087978, -0.25255388209250207, 0.29509049403417825, -0.21067131105886333, -0.2399995891171699, 0.02589261432871931, -0.4478479693964187, -0.14045450462939002, -0.2420701347427873, 0.20875266759397987, -0.11890458031220988, 0.14811542582180526, 0.2737958669043105, -0.11547705968591507, 0.6597080833195006, 0.07992531588797436, 0.05915405073090224, -0.26542602357243567, 0.11569341812655404, -0.2874414806194876, 0.09904840142533733, -0.5002765864877184, -0.04322837260759638, -0.1324656167376673, -0.1222750588252644, 0.11951788919186995, 0.16947163045490515, 0.12323045574233049, -0.271256252901192, 0.3934118914133965, -0.22674657350169808, -0.23650022112778363, 0.21267188580043078, 0.5448676902535287, 0.25937376100424187, -0.23279322733031546, -0.5573120243446069, -0.13001345193841543, -0.09456857308851366, -0.01613398722666587, -0.12567240570220498, 0.6216170629645763, -0.06319817674537742, -0.6307209508129681, 0.19024735310109797, 0.7179729203322958, -0.19480602549280435, 0.252525658481657, -0.05571644565953965, 0.17162760336123128, -0.12766338087199594, -0.22812351593388563, -0.7187697645085713, -0.2896596954760852, -0.47667660634451126, -0.5478447511376696, -0.780340609959056, 0.20550255898499986, 0.28942050652930207, 0.49978960268123934, 0.47475485352505187, -0.1629186057455895, 0.6341639533867625, 0.16425034479037187, -0.2934700742211111, 0.20577076987091114, 0.2493464145780785, 0.15579014359893378, -0.19405337814170842, -0.7463512063914415, 0.21901783717248474, -0.2806465419738311, -0.22264619747220968, -0.026025718636855044, 0.13989671058096703, 0.34324045430505434, 0.7403088705571854, 0.5788422562931997, 0.735612851128943, 0.22856860139093782, -0.04275283476509495, 0.15025360133250598, -0.43002429615594356, 0.1617865860144974, -0.30438939670399556, 0.22574039650480887, 0.4509856792125571, 0.5174562057996882, 0.5539464695453231, 0.3640242010961108, 0.5225796094224113, 0.37222856448808705, -0.07886489627696425, -0.10072955042441525, -0.03487552167091512, 0.633402208529289, 0.39630385042897864, 0.024338165558515645, -0.2315523727341504, 0.27666155741520754, 0.2741331868275141, -0.5559898723843252, -0.7972856239438895, -0.05244513100509962, 0.2961591054719273, 0.5085245427008191, 0.5927379375064121, 0.00998200984309039, -0.016675311259266135, 0.2758150632811303, -0.1996701528145745, -0.277576601955685, -0.30156825119828795, 0.3577023381701035, 0.23707230757978087, 0.08885202564683509, -0.06070781596979455, -0.5191343321618674, -0.23358238327868802, 0.2662318005812771, 0.5342771571157054, 0.03775977215097387, 0.4092931700406099, 0.11421616039838817, -0.09838962360160503, 0.01572727663269652, -0.2585862429126982, -0.2548780674092935, -0.657849642340433, -0.12560636748715004, -0.13672321817259628, 0.2734642210232939, -0.2374447810998653, -0.4079828824362475, 0.13533888198727584, -0.4257006175167312, 0.07162128739972429, 0.6208023816479051, 0.001146364070046424, -0.061666356952889884, -0.1427636875917455, 0.07927204272403299, 0.0702151002031311, -0.5407839786299748, -0.06521471665661235, 0.2666268554636551, 0.10022881978456888, 0.004645554910362171, -0.04000358060554532, 0.7096106079805002, -0.29535147104313403, -0.19211716334504797, -0.7798874695680038, -0.053267720999682244, -0.48290111168487737, 0.06996798839522128, -0.04307822860492916, -0.08221654593021341, -0.43207900117312725, 0.08540698743338043, -0.16641976856804605, 0.15842536114102274, -0.028945545432846664, 0.29530011665501227, -0.16569298830089987, 0.10020551586585347, -0.019065111572911908, 0.031846646910311194, 0.7819312207782039, 0.6457001079483744, -0.6406332309262699, -0.5531288288852818, -0.22708155284220852, -0.5734360178970971, -0.20864537303852598, 0.21447758373770248, 0.2629028359683317, -0.24089369962026977, -0.293350734353414, -0.23585197844840197, 0.08789944618282025, -0.11240439179333087, -0.2997111211415974, -0.06443510003680958, 0.07726971034821761, -0.15016580902192314, -0.09931113770607314, -0.6498552378299531, -0.7958383923414816, 0.11262733580956413, -0.19214318998338306, -0.13326581405662577, -0.07245573040550946, 0.006609342939127183, 0.017083365101339343, -0.06987148403241544, -0.19289449345725773, -0.05952627227451188, 0.1549825437446592, 0.031035255104271964, -0.0818212299216112, 0.2939912421474407, -0.014971224178763287, -0.02518514167937158]