[0.12445106392979927, 0.056237704468798666, -0.17110470818911672, 0.09163549039134797, -0.11705746917087989, 0.12759777195720495, -0.056875084216480465, 0.1729820782050459, 0.34300225640716125, 0.297127073062768, -0.3437525465104535, -0.24376641570592134, -0.2789194502343209, 0.06973439362820544, -0.2586959747042239, 0.09544118554045111, 0.18452906333407854, 0.07472614123168264, 0.2789462548347469, 0.5050758538977438, -0.18635332805629312, -0.4695553300256517, -0.5191247026930279, -0.1622929279432997, 0.12791037695892427, 0.012311252323464583, -0.21290559350278182, -0.12550507800422087, -0.09014292757984421, -0.23996553533337805, 0.18870222428489347, -0.06826351016056276, -0.03620757456463608, 0.5993928557794603, 0.5410399120863469, -0.1392689617411369, -0.08103551702189171, -0.137600925245924, -0.5361583454214791, 0.1610017749835218, -0.17194963386865353, -0.43319840588727665, 0.17562312831681487, 0.1384354448390826, -0.1282346357402289, -0.18822201329782337, -0.2211204951704821, -0.02982539233522913, 0.35911460949749335, 0.1613226367023815, -0.049250448697025384, -0.06287947811246336, 0.010268779099875558, 0.02022985449830031, 6.390230479501602E-4, 0.20267849971590923, -0.2247444104168968, -0.5402778757068023, -0.21811796105755327, 0.052900485791137375, 0.07662059038797225, -0.07932866315670245, -0.46114463741486, -0.48154638177280956, -0.08207914848499287, 0.0620094830362477, 0.43404620838769103, 0.7728663615253639, 0.4223768325407009, -0.11967625439238594, 0.13141027417522205, 0.2442778241482217, -0.29278188608703826, -0.19622074708724624, 0.06294272301738713, 0.18943891699211352, -0.2907800977357349, -0.040588852958750365, -0.17527952488737003, 0.5089875567631952, 0.3556380558574116, 0.5774763726612809, 0.636760382249963, 0.5320435444899556, -0.02778864042633561, -0.42004639583451053, -0.09212626033445681, 0.11594238490153208, 0.03611061602340876, 0.40242846323232323, 0.7722834648605545, 0.3434504061470206, 0.41667520379598194, -0.08050048971027546, 0.009106166974510277, 0.5550770479811176, 0.6004885580668695, 0.533488975894562, 0.418887458190803, 0.3781241190364746, 0.019805098129547893, -0.5053594901436826, 0.26321456771826507, -0.2431155722334727, 0.29455194235546117, 0.09813491241971561, -0.025983469964540984, -0.20007368084345123, -0.09191033770386697, -8.470568542175427E-4, 0.20849768954650766, 0.29067374332599843, 0.41562750399945847, -0.04813703888148074, 0.16373685324345794, 0.706515026837558, 0.33164920403998, 0.011609530092309667, 0.021819860463447804, -0.090552952028672, 0.20891638504988236, 0.24172759075186595, -0.7280407663052505, -0.19221545832181558, 0.1065779598369948, 0.13730500175413302, 0.2003911590821889, 0.0937384324231639, -0.0013758372952674125, -0.032134852744677145, -0.24807501371234048, -0.2643103400666436, -0.0036146011478110363, -0.2506606455443637, -0.25114255493540644, -0.053240794789152945, -0.15001315062160714, -0.46715262539835223, -0.04645126241416869, -0.08720216036201248, 0.20363035205465863, 0.04370276148113017, 0.3802943184335708, -0.4568069969559116, 0.008286721538401653, -0.43129160867152316, -0.29978812822824114, 0.1569132360290092, -0.7071581352549868, -0.27679448217614877, -0.11030140411771733, -0.06601541950708734, -0.5390484496533444, -0.26851127265991087, 0.5486005265437248, 0.3491161476133402, 0.5158203511202588, 0.22509702157767902, 0.05857103749108589, 0.009466021606779118, -0.08116885981693228, -0.04685982912152681, -0.03481839920669966, -1.0074381285598488, -0.989587135805571, -0.04278248830805381, -0.3008157080436864, -0.32683597106800333, -0.03725524744090003, 0.29063524037897376, -0.2970891628375879, 0.18938247663262842, -0.5061436854901746, -0.042473805362078176, -0.25287053259371556, 0.2286322069019297, -0.1986065130979212, -0.6878750001866932, -0.38823350950903657, -0.28696457231763123, 0.021782160384516802, -0.05815039065255201, -0.4392646012733438, -0.11834808093681076, -0.1132690501514464, -0.09001112422697455, -0.13329744862329712, -0.3965573037982864, -0.016023333118487193, -0.29530598950619574, 0.23595412128852272, -0.23985444882431373, -0.5171137646462238, -0.11937950559043128, -0.15338499543411446, 0.16226413617495855, 0.1079901087237643, -0.16203462639388067, -0.10469352552012348, -0.29585392295552326, 0.03473300770144111, 0.16079292379272278, -0.20208488625183646, -0.2243510463712689, -0.2583110437741208, 0.28244094960890354, 0.10948152821811741, -0.021833763909482162, -0.21780185801347668, -0.28955265572602457, -0.28369658636007233, -0.058191128581118134, 0.03584460275098761, 0.27683599462975944, 0.26018342056810356, 0.5083116710234461, 0.5164040136686936, -0.0182511948921541, -0.11966199693146873, -0.2192430950091978, 0.14785253418284522, -0.23069054485464918, 0.25281974220791276, 0.046481249686880666, 0.02373795882437335]